net
{
	propagationenginegenerator1791944048146838126L = "edu.ucla.belief.approx.BeliefPropagationSettings@21e323e3";
	huginenginegenerator3061656038650325130L = "edu.ucla.belief.inference.JoinTreeSettings@415da768";
	recoveryenginegenerator6944530267470113528l = "edu.ucla.util.SettingsImpl@7ec41246";
	node_size = (130 55);
}

node ThanhHoa
{
	states = ("false" "true" );
	position = (314 -55);
	diagnosistype = "AUXILIARY";
	DSLxSUBMODEL = "Root Submodel";
	ismapvariable = "false";
	ID = "variable2";
	label = "ThanhHoa";
	excludepolicy = "include whole CPT";
}
node Trang
{
	states = ("false" "true" );
	position = (161 -184);
	diagnosistype = "AUXILIARY";
	DSLxSUBMODEL = "Root Submodel";
	ismapvariable = "false";
	ID = "variable0";
	label = "Trang";
	excludepolicy = "include whole CPT";
}
node De
{
	states = ("false" "true" );
	position = (41 -121);
	diagnosistype = "AUXILIARY";
	DSLxSUBMODEL = "Root Submodel";
	ismapvariable = "false";
	ID = "variable3";
	label = "De";
	excludepolicy = "include whole CPT";
}
node CoMeo
{
	states = ("false" "true" );
	position = (83 -47);
	diagnosistype = "AUXILIARY";
	DSLxSUBMODEL = "Root Submodel";
	ismapvariable = "false";
	ID = "variable1";
	label = "CoMeo";
	excludepolicy = "include whole CPT";
}
potential ( ThanhHoa | )
{
	data = (	0.9993337774816788	6.662225183211193E-4	);
}
potential ( Trang | CoMeo ThanhHoa De )
{
	data = ((((	0.9999996666667778	3.3333322222225924E-7	)
		(	0.9999600015866038	3.999841339626418E-5	))
		((	0.999700089873068	2.9991012693192934E-4	)
		(	0.999700089873068	2.9991012693192934E-4	)))
		(((	0.999000999000999	9.99000999000999E-4	)
		(	0.999000999000999	9.99000999000999E-4	))
		((	0.999000000999	9.99999000999999E-4	)
		(	0.999000000999	9.99999000999999E-4	))));
}
potential ( De | )
{
	data = (	0.5	0.5	);
}
potential ( CoMeo | )
{
	data = (	0.999999000001	9.99999000001E-7	);
}
